digraph Tree {
node [shape=box, style="filled, rounded", color="black", fontname="helvetica"] ;
edge [fontname="helvetica"] ;
0 [label="mean concave points <= 0.049\ngini = 0.463\nsamples = 483\nvalue = [176, 307]\nclass = benign", fillcolor="#abd5f4"] ;
1 [label="mean radius <= 14.98\ngini = 0.085\nsamples = 294\nvalue = [13, 281]\nclass = benign", fillcolor="#42a2e6"] ;
0 -> 1 [labeldistance=2.5, labelangle=45, headlabel="True"] ;
2 [label="mean texture <= 21.575\ngini = 0.035\nsamples = 278\nvalue = [5, 273]\nclass = benign", fillcolor="#3d9fe5"] ;
1 -> 2 ;
3 [label="gini = 0.0\nsamples = 228\nvalue = [0, 228]\nclass = benign", fillcolor="#399de5"] ;
2 -> 3 ;
4 [label="smoothness error <= 0.004\ngini = 0.18\nsamples = 50\nvalue = [5, 45]\nclass = benign", fillcolor="#4fa8e8"] ;
2 -> 4 ;
5 [label="gini = 0.444\nsamples = 3\nvalue = [2, 1]\nclass = malignant", fillcolor="#f2c09c"] ;
4 -> 5 ;
6 [label="mean concave points <= 0.044\ngini = 0.12\nsamples = 47\nvalue = [3, 44]\nclass = benign", fillcolor="#46a4e7"] ;
4 -> 6 ;
7 [label="compactness error <= 0.012\ngini = 0.044\nsamples = 44\nvalue = [1, 43]\nclass = benign", fillcolor="#3e9fe6"] ;
6 -> 7 ;
8 [label="worst compactness <= 0.146\ngini = 0.18\nsamples = 10\nvalue = [1, 9]\nclass = benign", fillcolor="#4fa8e8"] ;
7 -> 8 ;
9 [label="gini = 0.0\nsamples = 9\nvalue = [0, 9]\nclass = benign", fillcolor="#399de5"] ;
8 -> 9 ;
10 [label="gini = 0.0\nsamples = 1\nvalue = [1, 0]\nclass = malignant", fillcolor="#e58139"] ;
8 -> 10 ;
11 [label="gini = 0.0\nsamples = 34\nvalue = [0, 34]\nclass = benign", fillcolor="#399de5"] ;
7 -> 11 ;
12 [label="gini = 0.444\nsamples = 3\nvalue = [2, 1]\nclass = malignant", fillcolor="#f2c09c"] ;
6 -> 12 ;
13 [label="mean texture <= 18.68\ngini = 0.5\nsamples = 16\nvalue = [8, 8]\nclass = malignant", fillcolor="#ffffff"] ;
1 -> 13 ;
14 [label="gini = 0.0\nsamples = 6\nvalue = [0, 6]\nclass = benign", fillcolor="#399de5"] ;
13 -> 14 ;
15 [label="compactness error <= 0.021\ngini = 0.32\nsamples = 10\nvalue = [8, 2]\nclass = malignant", fillcolor="#eca06a"] ;
13 -> 15 ;
16 [label="gini = 0.0\nsamples = 8\nvalue = [8, 0]\nclass = malignant", fillcolor="#e58139"] ;
15 -> 16 ;
17 [label="gini = 0.0\nsamples = 2\nvalue = [0, 2]\nclass = benign", fillcolor="#399de5"] ;
15 -> 17 ;
18 [label="mean texture <= 16.395\ngini = 0.237\nsamples = 189\nvalue = [163, 26]\nclass = malignant", fillcolor="#e99559"] ;
0 -> 18 [labeldistance=2.5, labelangle=-45, headlabel="False"] ;
19 [label="mean concave points <= 0.091\ngini = 0.477\nsamples = 28\nvalue = [11, 17]\nclass = benign", fillcolor="#b9dcf6"] ;
18 -> 19 ;
20 [label="mean symmetry <= 0.178\ngini = 0.255\nsamples = 20\nvalue = [3, 17]\nclass = benign", fillcolor="#5caeea"] ;
19 -> 20 ;
21 [label="worst compactness <= 0.277\ngini = 0.5\nsamples = 6\nvalue = [3, 3]\nclass = malignant", fillcolor="#ffffff"] ;
20 -> 21 ;
22 [label="gini = 0.0\nsamples = 3\nvalue = [0, 3]\nclass = benign", fillcolor="#399de5"] ;
21 -> 22 ;
23 [label="gini = 0.0\nsamples = 3\nvalue = [3, 0]\nclass = malignant", fillcolor="#e58139"] ;
21 -> 23 ;
24 [label="gini = 0.0\nsamples = 14\nvalue = [0, 14]\nclass = benign", fillcolor="#399de5"] ;
20 -> 24 ;
25 [label="gini = 0.0\nsamples = 8\nvalue = [8, 0]\nclass = malignant", fillcolor="#e58139"] ;
19 -> 25 ;
26 [label="mean radius <= 13.14\ngini = 0.106\nsamples = 161\nvalue = [152, 9]\nclass = malignant", fillcolor="#e78845"] ;
18 -> 26 ;
27 [label="concave points error <= 0.019\ngini = 0.49\nsamples = 14\nvalue = [8, 6]\nclass = malignant", fillcolor="#f8e0ce"] ;
26 -> 27 ;
28 [label="mean concave points <= 0.051\ngini = 0.198\nsamples = 9\nvalue = [8, 1]\nclass = malignant", fillcolor="#e89152"] ;
27 -> 28 ;
29 [label="gini = 0.0\nsamples = 1\nvalue = [0, 1]\nclass = benign", fillcolor="#399de5"] ;
28 -> 29 ;
30 [label="gini = 0.0\nsamples = 8\nvalue = [8, 0]\nclass = malignant", fillcolor="#e58139"] ;
28 -> 30 ;
31 [label="gini = 0.0\nsamples = 5\nvalue = [0, 5]\nclass = benign", fillcolor="#399de5"] ;
27 -> 31 ;
32 [label="worst symmetry <= 0.242\ngini = 0.04\nsamples = 147\nvalue = [144, 3]\nclass = malignant", fillcolor="#e6843d"] ;
26 -> 32 ;
33 [label="mean radius <= 15.735\ngini = 0.355\nsamples = 13\nvalue = [10, 3]\nclass = malignant", fillcolor="#eda774"] ;
32 -> 33 ;
34 [label="gini = 0.0\nsamples = 3\nvalue = [0, 3]\nclass = benign", fillcolor="#399de5"] ;
33 -> 34 ;
35 [label="gini = 0.0\nsamples = 10\nvalue = [10, 0]\nclass = malignant", fillcolor="#e58139"] ;
33 -> 35 ;
36 [label="gini = 0.0\nsamples = 134\nvalue = [134, 0]\nclass = malignant", fillcolor="#e58139"] ;
32 -> 36 ;
}